digraph Tree {
node [shape=box, style="rounded", color="black", fontname=helvetica] ;
edge [fontname=helvetica] ;
0 [label="temp_1 <= 59.5\nmse = 138.8\nsamples = 156\nvalue = 63.7"] ;
1 [label="average <= 49.2\nmse = 49.7\nsamples = 58\nvalue = 51.3"] ;
0 -> 1 [labeldistance=2.5, labelangle=45, headlabel="True"] ;
2 [label="average <= 46.5\nmse = 22.2\nsamples = 31\nvalue = 46.6"] ;
1 -> 2 ;
3 [label="temp_1 <= 37.0\nmse = 9.6\nsamples = 13\nvalue = 41.8"] ;
2 -> 3 ;
4 [label="week_Sat <= 0.5\nmse = 3.6\nsamples = 2\nvalue = 37.7"] ;
3 -> 4 ;
5 [label="mse = 0.0\nsamples = 1\nvalue = 39.0"] ;
4 -> 5 ;
6 [label="mse = 0.0\nsamples = 1\nvalue = 35.0"] ;
4 -> 6 ;
7 [label="temp_2 <= 42.5\nmse = 7.1\nsamples = 11\nvalue = 42.5"] ;
3 -> 7 ;
8 [label="average <= 45.5\nmse = 4.5\nsamples = 4\nvalue = 44.8"] ;
7 -> 8 ;
9 [label="week_Mon <= 0.5\nmse = 0.2\nsamples = 2\nvalue = 46.7"] ;
8 -> 9 ;
10 [label="mse = 0.0\nsamples = 1\nvalue = 47.0"] ;
9 -> 10 ;
11 [label="mse = 0.0\nsamples = 1\nvalue = 46.0"] ;
9 -> 11 ;
12 [label="temp_2 <= 39.0\nmse = 2.0\nsamples = 2\nvalue = 43.0"] ;
8 -> 12 ;
13 [label="mse = 0.0\nsamples = 1\nvalue = 44.0"] ;
12 -> 13 ;
14 [label="mse = 0.0\nsamples = 1\nvalue = 41.0"] ;
12 -> 14 ;
15 [label="average <= 45.5\nmse = 4.0\nsamples = 7\nvalue = 41.3"] ;
7 -> 15 ;
16 [label="week_Wed <= 0.5\nmse = 0.1\nsamples = 3\nvalue = 39.8"] ;
15 -> 16 ;
17 [label="mse = 0.0\nsamples = 2\nvalue = 40.0"] ;
16 -> 17 ;
18 [label="mse = 0.0\nsamples = 1\nvalue = 39.0"] ;
16 -> 18 ;
19 [label="friend <= 40.0\nmse = 3.2\nsamples = 4\nvalue = 43.0"] ;
15 -> 19 ;
20 [label="mse = 0.0\nsamples = 2\nvalue = 45.0"] ;
19 -> 20 ;
21 [label="average <= 45.7\nmse = 0.9\nsamples = 2\nvalue = 41.7"] ;
19 -> 21 ;
22 [label="mse = 0.0\nsamples = 1\nvalue = 43.0"] ;
21 -> 22 ;
23 [label="mse = 0.0\nsamples = 1\nvalue = 41.0"] ;
21 -> 23 ;
24 [label="day <= 21.5\nmse = 7.1\nsamples = 18\nvalue = 49.5"] ;
2 -> 24 ;
25 [label="friend <= 54.5\nmse = 3.0\nsamples = 10\nvalue = 48.0"] ;
24 -> 25 ;
26 [label="week_Tues <= 0.5\nmse = 0.8\nsamples = 4\nvalue = 46.6"] ;
25 -> 26 ;
27 [label="mse = 0.0\nsamples = 3\nvalue = 46.0"] ;
26 -> 27 ;
28 [label="mse = 0.0\nsamples = 1\nvalue = 48.0"] ;
26 -> 28 ;
29 [label="month <= 1.5\nmse = 1.2\nsamples = 6\nvalue = 49.4"] ;
25 -> 29 ;
30 [label="week_Fri <= 0.5\nmse = 0.2\nsamples = 3\nvalue = 48.7"] ;
29 -> 30 ;
31 [label="mse = 0.0\nsamples = 2\nvalue = 49.0"] ;
30 -> 31 ;
32 [label="mse = 0.0\nsamples = 1\nvalue = 48.0"] ;
30 -> 32 ;
33 [label="temp_1 <= 51.0\nmse = 0.8\nsamples = 3\nvalue = 50.5"] ;
29 -> 33 ;
34 [label="mse = 0.0\nsamples = 2\nvalue = 51.0"] ;
33 -> 34 ;
35 [label="mse = 0.0\nsamples = 1\nvalue = 49.0"] ;
33 -> 35 ;
36 [label="week_Sat <= 0.5\nmse = 3.6\nsamples = 8\nvalue = 52.1"] ;
24 -> 36 ;
37 [label="temp_1 <= 56.5\nmse = 2.2\nsamples = 7\nvalue = 52.5"] ;
36 -> 37 ;
38 [label="temp_2 <= 48.5\nmse = 1.1\nsamples = 6\nvalue = 52.1"] ;
37 -> 38 ;
39 [label="mse = 0.0\nsamples = 1\nvalue = 54.0"] ;
38 -> 39 ;
40 [label="week_Sun <= 0.5\nmse = 0.2\nsamples = 5\nvalue = 51.6"] ;
38 -> 40 ;
41 [label="mse = 0.0\nsamples = 4\nvalue = 52.0"] ;
40 -> 41 ;
42 [label="mse = 0.0\nsamples = 1\nvalue = 51.0"] ;
40 -> 42 ;
43 [label="mse = 0.0\nsamples = 1\nvalue = 56.0"] ;
37 -> 43 ;
44 [label="mse = 0.0\nsamples = 1\nvalue = 48.0"] ;
36 -> 44 ;
45 [label="average <= 53.7\nmse = 17.5\nsamples = 27\nvalue = 57.5"] ;
1 -> 45 ;
46 [label="day <= 23.5\nmse = 7.7\nsamples = 15\nvalue = 54.9"] ;
45 -> 46 ;
47 [label="average <= 52.8\nmse = 4.3\nsamples = 14\nvalue = 54.2"] ;
46 -> 47 ;
48 [label="day <= 17.5\nmse = 2.8\nsamples = 12\nvalue = 54.7"] ;
47 -> 48 ;
49 [label="average <= 51.3\nmse = 1.0\nsamples = 7\nvalue = 55.6"] ;
48 -> 49 ;
50 [label="friend <= 47.5\nmse = 0.6\nsamples = 4\nvalue = 56.4"] ;
49 -> 50 ;
51 [label="mse = 0.0\nsamples = 2\nvalue = 57.0"] ;
50 -> 51 ;
52 [label="friend <= 54.0\nmse = 0.2\nsamples = 2\nvalue = 55.5"] ;
50 -> 52 ;
53 [label="mse = 0.0\nsamples = 1\nvalue = 55.0"] ;
52 -> 53 ;
54 [label="mse = 0.0\nsamples = 1\nvalue = 56.0"] ;
52 -> 54 ;
55 [label="temp_1 <= 55.5\nmse = 0.2\nsamples = 3\nvalue = 54.8"] ;
49 -> 55 ;
56 [label="mse = 0.0\nsamples = 1\nvalue = 54.0"] ;
55 -> 56 ;
57 [label="mse = 0.0\nsamples = 2\nvalue = 55.0"] ;
55 -> 57 ;
58 [label="average <= 50.0\nmse = 2.5\nsamples = 5\nvalue = 53.5"] ;
48 -> 58 ;
59 [label="week_Mon <= 0.5\nmse = 0.2\nsamples = 2\nvalue = 54.6"] ;
58 -> 59 ;
60 [label="mse = 0.0\nsamples = 1\nvalue = 55.0"] ;
59 -> 60 ;
61 [label="mse = 0.0\nsamples = 1\nvalue = 54.0"] ;
59 -> 61 ;
62 [label="week_Sat <= 0.5\nmse = 0.9\nsamples = 3\nvalue = 51.7"] ;
58 -> 62 ;
63 [label="mse = 0.0\nsamples = 2\nvalue = 51.0"] ;
62 -> 63 ;
64 [label="mse = 0.0\nsamples = 1\nvalue = 53.0"] ;
62 -> 64 ;
65 [label="week_Mon <= 0.5\nmse = 2.2\nsamples = 2\nvalue = 50.5"] ;
47 -> 65 ;
66 [label="mse = 0.0\nsamples = 1\nvalue = 52.0"] ;
65 -> 66 ;
67 [label="mse = 0.0\nsamples = 1\nvalue = 49.0"] ;
65 -> 67 ;
68 [label="mse = 0.0\nsamples = 1\nvalue = 61.0"] ;
46 -> 68 ;
69 [label="week_Sun <= 0.5\nmse = 10.3\nsamples = 12\nvalue = 60.8"] ;
45 -> 69 ;
70 [label="average <= 57.5\nmse = 4.9\nsamples = 11\nvalue = 61.4"] ;
69 -> 70 ;
71 [label="temp_1 <= 57.5\nmse = 1.1\nsamples = 4\nvalue = 63.7"] ;
70 -> 71 ;
72 [label="temp_2 <= 54.0\nmse = 0.2\nsamples = 2\nvalue = 64.5"] ;
71 -> 72 ;
73 [label="mse = 0.0\nsamples = 1\nvalue = 64.0"] ;
72 -> 73 ;
74 [label="mse = 0.0\nsamples = 1\nvalue = 65.0"] ;
72 -> 74 ;
75 [label="average <= 55.7\nmse = 0.2\nsamples = 2\nvalue = 62.7"] ;
71 -> 75 ;
76 [label="mse = 0.0\nsamples = 1\nvalue = 63.0"] ;
75 -> 76 ;
77 [label="mse = 0.0\nsamples = 1\nvalue = 62.0"] ;
75 -> 77 ;
78 [label="month <= 7.0\nmse = 1.0\nsamples = 7\nvalue = 59.7"] ;
70 -> 78 ;
79 [label="temp_2 <= 59.5\nmse = 0.5\nsamples = 5\nvalue = 59.3"] ;
78 -> 79 ;
80 [label="mse = 0.0\nsamples = 2\nvalue = 60.0"] ;
79 -> 80 ;
81 [label="temp_2 <= 65.5\nmse = 0.2\nsamples = 3\nvalue = 58.8"] ;
79 -> 81 ;
82 [label="mse = 0.0\nsamples = 2\nvalue = 59.0"] ;
81 -> 82 ;
83 [label="mse = 0.0\nsamples = 1\nvalue = 58.0"] ;
81 -> 83 ;
84 [label="average <= 59.9\nmse = 0.9\nsamples = 2\nvalue = 60.7"] ;
78 -> 84 ;
85 [label="mse = 0.0\nsamples = 1\nvalue = 62.0"] ;
84 -> 85 ;
86 [label="mse = 0.0\nsamples = 1\nvalue = 60.0"] ;
84 -> 86 ;
87 [label="mse = 0.0\nsamples = 1\nvalue = 51.0"] ;
69 -> 87 ;
88 [label="temp_1 <= 67.5\nmse = 58.3\nsamples = 98\nvalue = 70.4"] ;
0 -> 88 [labeldistance=2.5, labelangle=-45, headlabel="False"] ;
89 [label="average <= 64.8\nmse = 19.9\nsamples = 35\nvalue = 63.8"] ;
88 -> 89 ;
90 [label="day <= 9.0\nmse = 14.4\nsamples = 21\nvalue = 61.6"] ;
89 -> 90 ;
91 [label="temp_1 <= 60.5\nmse = 10.9\nsamples = 9\nvalue = 64.1"] ;
90 -> 91 ;
92 [label="mse = 0.0\nsamples = 1\nvalue = 68.0"] ;
91 -> 92 ;
93 [label="day <= 7.5\nmse = 9.1\nsamples = 8\nvalue = 63.2"] ;
91 -> 93 ;
94 [label="week_Fri <= 0.5\nmse = 4.4\nsamples = 7\nvalue = 62.6"] ;
93 -> 94 ;
95 [label="temp_1 <= 62.5\nmse = 3.0\nsamples = 5\nvalue = 61.5"] ;
94 -> 95 ;
96 [label="mse = 0.0\nsamples = 2\nvalue = 63.0"] ;
95 -> 96 ;
97 [label="week_Sat <= 0.5\nmse = 1.5\nsamples = 3\nvalue = 60.0"] ;
95 -> 97 ;
98 [label="temp_2 <= 60.0\nmse = 0.2\nsamples = 2\nvalue = 60.7"] ;
97 -> 98 ;
99 [label="mse = 0.0\nsamples = 1\nvalue = 60.0"] ;
98 -> 99 ;
100 [label="mse = 0.0\nsamples = 1\nvalue = 61.0"] ;
98 -> 100 ;
101 [label="mse = 0.0\nsamples = 1\nvalue = 58.0"] ;
97 -> 101 ;
102 [label="temp_1 <= 64.0\nmse = 0.2\nsamples = 2\nvalue = 64.8"] ;
94 -> 102 ;
103 [label="mse = 0.0\nsamples = 1\nvalue = 64.0"] ;
102 -> 103 ;
104 [label="mse = 0.0\nsamples = 1\nvalue = 65.0"] ;
102 -> 104 ;
105 [label="mse = 0.0\nsamples = 1\nvalue = 71.0"] ;
93 -> 105 ;
106 [label="day <= 28.0\nmse = 7.4\nsamples = 12\nvalue = 59.5"] ;
90 -> 106 ;
107 [label="month <= 7.5\nmse = 3.6\nsamples = 11\nvalue = 59.0"] ;
106 -> 107 ;
108 [label="temp_1 <= 61.5\nmse = 2.0\nsamples = 6\nvalue = 58.2"] ;
107 -> 108 ;
109 [label="temp_1 <= 60.5\nmse = 0.2\nsamples = 3\nvalue = 59.3"] ;
108 -> 109 ;
110 [label="mse = 0.0\nsamples = 2\nvalue = 59.0"] ;
109 -> 110 ;
111 [label="mse = 0.0\nsamples = 1\nvalue = 60.0"] ;
109 -> 111 ;
112 [label="temp_1 <= 65.5\nmse = 1.0\nsamples = 3\nvalue = 57.0"] ;
108 -> 112 ;
113 [label="average <= 57.0\nmse = 0.2\nsamples = 2\nvalue = 56.6"] ;
112 -> 113 ;
114 [label="mse = 0.0\nsamples = 1\nvalue = 56.0"] ;
113 -> 114 ;
115 [label="mse = 0.0\nsamples = 1\nvalue = 57.0"] ;
113 -> 115 ;
116 [label="mse = 0.0\nsamples = 1\nvalue = 59.0"] ;
112 -> 116 ;
117 [label="average <= 57.8\nmse = 2.6\nsamples = 5\nvalue = 60.7"] ;
107 -> 117 ;
118 [label="week_Fri <= 0.5\nmse = 0.2\nsamples = 2\nvalue = 62.5"] ;
117 -> 118 ;
119 [label="mse = 0.0\nsamples = 1\nvalue = 62.0"] ;
118 -> 119 ;
120 [label="mse = 0.0\nsamples = 1\nvalue = 63.0"] ;
118 -> 120 ;
121 [label="day <= 18.5\nmse = 1.2\nsamples = 3\nvalue = 59.8"] ;
117 -> 121 ;
122 [label="day <= 16.0\nmse = 0.2\nsamples = 2\nvalue = 60.3"] ;
121 -> 122 ;
123 [label="mse = 0.0\nsamples = 1\nvalue = 60.0"] ;
122 -> 123 ;
124 [label="mse = 0.0\nsamples = 1\nvalue = 61.0"] ;
122 -> 124 ;
125 [label="mse = 0.0\nsamples = 1\nvalue = 58.0"] ;
121 -> 125 ;
126 [label="mse = 0.0\nsamples = 1\nvalue = 68.0"] ;
106 -> 126 ;
127 [label="friend <= 54.5\nmse = 12.1\nsamples = 14\nvalue = 66.7"] ;
89 -> 127 ;
128 [label="temp_1 <= 66.5\nmse = 3.0\nsamples = 2\nvalue = 62.0"] ;
127 -> 128 ;
129 [label="mse = 0.0\nsamples = 1\nvalue = 59.0"] ;
128 -> 129 ;
130 [label="mse = 0.0\nsamples = 1\nvalue = 63.0"] ;
128 -> 130 ;
131 [label="temp_2 <= 64.5\nmse = 9.1\nsamples = 12\nvalue = 67.6"] ;
127 -> 131 ;
132 [label="month <= 7.5\nmse = 10.5\nsamples = 5\nvalue = 70.7"] ;
131 -> 132 ;
133 [label="week_Sun <= 0.5\nmse = 6.8\nsamples = 4\nvalue = 69.8"] ;
132 -> 133 ;
134 [label="mse = 0.0\nsamples = 3\nvalue = 71.0"] ;
133 -> 134 ;
135 [label="mse = 0.0\nsamples = 1\nvalue = 64.0"] ;
133 -> 135 ;
136 [label="mse = 0.0\nsamples = 1\nvalue = 76.0"] ;
132 -> 136 ;
137 [label="average <= 71.3\nmse = 2.3\nsamples = 7\nvalue = 66.2"] ;
131 -> 137 ;
138 [label="average <= 66.5\nmse = 1.1\nsamples = 6\nvalue = 65.4"] ;
137 -> 138 ;
139 [label="temp_2 <= 67.0\nmse = 0.2\nsamples = 3\nvalue = 66.4"] ;
138 -> 139 ;
140 [label="mse = 0.0\nsamples = 2\nvalue = 66.0"] ;
139 -> 140 ;
141 [label="mse = 0.0\nsamples = 1\nvalue = 67.0"] ;
139 -> 141 ;
142 [label="friend <= 73.0\nmse = 0.2\nsamples = 3\nvalue = 64.5"] ;
138 -> 142 ;
143 [label="mse = 0.0\nsamples = 1\nvalue = 64.0"] ;
142 -> 143 ;
144 [label="mse = 0.0\nsamples = 2\nvalue = 65.0"] ;
142 -> 144 ;
145 [label="mse = 0.0\nsamples = 1\nvalue = 68.0"] ;
137 -> 145 ;
146 [label="temp_1 <= 77.5\nmse = 40.6\nsamples = 63\nvalue = 74.3"] ;
88 -> 146 ;
147 [label="average <= 62.5\nmse = 28.0\nsamples = 49\nvalue = 72.2"] ;
146 -> 147 ;
148 [label="month <= 4.5\nmse = 37.1\nsamples = 10\nvalue = 67.8"] ;
147 -> 148 ;
149 [label="day <= 6.0\nmse = 26.0\nsamples = 7\nvalue = 71.0"] ;
148 -> 149 ;
150 [label="friend <= 43.0\nmse = 23.7\nsamples = 3\nvalue = 66.2"] ;
149 -> 150 ;
151 [label="mse = 0.0\nsamples = 1\nvalue = 71.0"] ;
150 -> 151 ;
152 [label="week_Mon <= 0.5\nmse = 2.2\nsamples = 2\nvalue = 61.5"] ;
150 -> 152 ;
153 [label="mse = 0.0\nsamples = 1\nvalue = 63.0"] ;
152 -> 153 ;
154 [label="mse = 0.0\nsamples = 1\nvalue = 60.0"] ;
152 -> 154 ;
155 [label="temp_2 <= 72.5\nmse = 10.2\nsamples = 4\nvalue = 73.4"] ;
149 -> 155 ;
156 [label="friend <= 55.0\nmse = 2.8\nsamples = 3\nvalue = 74.4"] ;
155 -> 156 ;
157 [label="week_Sun <= 0.5\nmse = 0.2\nsamples = 2\nvalue = 76.3"] ;
156 -> 157 ;
158 [label="mse = 0.0\nsamples = 1\nvalue = 76.0"] ;
157 -> 158 ;
159 [label="mse = 0.0\nsamples = 1\nvalue = 77.0"] ;
157 -> 159 ;
160 [label="mse = 0.0\nsamples = 1\nvalue = 73.0"] ;
156 -> 160 ;
161 [label="mse = 0.0\nsamples = 1\nvalue = 66.0"] ;
155 -> 161 ;
162 [label="friend <= 48.5\nmse = 9.7\nsamples = 3\nvalue = 62.4"] ;
148 -> 162 ;
163 [label="mse = 0.0\nsamples = 1\nvalue = 65.0"] ;
162 -> 163 ;
164 [label="month <= 7.5\nmse = 2.0\nsamples = 2\nvalue = 59.0"] ;
162 -> 164 ;
165 [label="mse = 0.0\nsamples = 1\nvalue = 60.0"] ;
164 -> 165 ;
166 [label="mse = 0.0\nsamples = 1\nvalue = 57.0"] ;
164 -> 166 ;
167 [label="week_Fri <= 0.5\nmse = 16.5\nsamples = 39\nvalue = 73.6"] ;
147 -> 167 ;
168 [label="temp_1 <= 71.5\nmse = 15.6\nsamples = 36\nvalue = 73.1"] ;
167 -> 168 ;
169 [label="day <= 18.5\nmse = 18.8\nsamples = 11\nvalue = 70.0"] ;
168 -> 169 ;
170 [label="month <= 6.5\nmse = 2.1\nsamples = 5\nvalue = 66.8"] ;
169 -> 170 ;
171 [label="month <= 5.5\nmse = 1.0\nsamples = 2\nvalue = 65.0"] ;
170 -> 171 ;
172 [label="mse = 0.0\nsamples = 1\nvalue = 64.0"] ;
171 -> 172 ;
173 [label="mse = 0.0\nsamples = 1\nvalue = 66.0"] ;
171 -> 173 ;
174 [label="friend <= 74.5\nmse = 0.2\nsamples = 3\nvalue = 67.8"] ;
170 -> 174 ;
175 [label="mse = 0.0\nsamples = 1\nvalue = 67.0"] ;
174 -> 175 ;
176 [label="mse = 0.0\nsamples = 2\nvalue = 68.0"] ;
174 -> 176 ;
177 [label="temp_1 <= 69.5\nmse = 15.5\nsamples = 6\nvalue = 73.2"] ;
169 -> 177 ;
178 [label="average <= 69.2\nmse = 3.6\nsamples = 3\nvalue = 69.7"] ;
177 -> 178 ;
179 [label="mse = 0.0\nsamples = 1\nvalue = 67.0"] ;
178 -> 179 ;
180 [label="mse = 0.0\nsamples = 2\nvalue = 71.0"] ;
178 -> 180 ;
181 [label="month <= 5.5\nmse = 2.9\nsamples = 3\nvalue = 76.7"] ;
177 -> 181 ;
182 [label="mse = 0.0\nsamples = 1\nvalue = 79.0"] ;
181 -> 182 ;
183 [label="temp_2 <= 73.0\nmse = 0.2\nsamples = 2\nvalue = 75.5"] ;
181 -> 183 ;
184 [label="mse = 0.0\nsamples = 1\nvalue = 76.0"] ;
183 -> 184 ;
185 [label="mse = 0.0\nsamples = 1\nvalue = 75.0"] ;
183 -> 185 ;
186 [label="week_Wed <= 0.5\nmse = 10.6\nsamples = 25\nvalue = 74.1"] ;
168 -> 186 ;
187 [label="friend <= 87.5\nmse = 9.6\nsamples = 20\nvalue = 73.6"] ;
186 -> 187 ;
188 [label="average <= 75.1\nmse = 6.9\nsamples = 16\nvalue = 72.8"] ;
187 -> 188 ;
189 [label="average <= 67.4\nmse = 4.9\nsamples = 9\nvalue = 71.6"] ;
188 -> 189 ;
190 [label="mse = 0.0\nsamples = 1\nvalue = 77.0"] ;
189 -> 190 ;
191 [label="month <= 7.5\nmse = 2.9\nsamples = 8\nvalue = 71.2"] ;
189 -> 191 ;
192 [label="friend <= 56.5\nmse = 2.2\nsamples = 6\nvalue = 71.6"] ;
191 -> 192 ;
193 [label="mse = 0.0\nsamples = 1\nvalue = 68.0"] ;
192 -> 193 ;
194 [label="day <= 15.0\nmse = 1.0\nsamples = 5\nvalue = 72.0"] ;
192 -> 194 ;
195 [label="mse = 0.0\nsamples = 3\nvalue = 71.0"] ;
194 -> 195 ;
196 [label="mse = 0.0\nsamples = 2\nvalue = 73.0"] ;
194 -> 196 ;
197 [label="month <= 8.5\nmse = 1.0\nsamples = 2\nvalue = 69.0"] ;
191 -> 197 ;
198 [label="mse = 0.0\nsamples = 1\nvalue = 70.0"] ;
197 -> 198 ;
199 [label="mse = 0.0\nsamples = 1\nvalue = 68.0"] ;
197 -> 199 ;
200 [label="friend <= 68.0\nmse = 5.9\nsamples = 7\nvalue = 74.1"] ;
188 -> 200 ;
201 [label="day <= 12.0\nmse = 0.2\nsamples = 3\nvalue = 72.6"] ;
200 -> 201 ;
202 [label="mse = 0.0\nsamples = 2\nvalue = 73.0"] ;
201 -> 202 ;
203 [label="mse = 0.0\nsamples = 1\nvalue = 72.0"] ;
201 -> 203 ;
204 [label="week_Sun <= 0.5\nmse = 4.5\nsamples = 4\nvalue = 77.0"] ;
200 -> 204 ;
205 [label="week_Mon <= 0.5\nmse = 2.0\nsamples = 3\nvalue = 76.0"] ;
204 -> 205 ;
206 [label="mse = 0.0\nsamples = 2\nvalue = 77.0"] ;
205 -> 206 ;
207 [label="mse = 0.0\nsamples = 1\nvalue = 74.0"] ;
205 -> 207 ;
208 [label="mse = 0.0\nsamples = 1\nvalue = 80.0"] ;
204 -> 208 ;
209 [label="temp_2 <= 77.5\nmse = 8.2\nsamples = 4\nvalue = 76.6"] ;
187 -> 209 ;
210 [label="day <= 13.5\nmse = 2.2\nsamples = 2\nvalue = 78.2"] ;
209 -> 210 ;
211 [label="mse = 0.0\nsamples = 1\nvalue = 77.0"] ;
210 -> 211 ;
212 [label="mse = 0.0\nsamples = 1\nvalue = 80.0"] ;
210 -> 212 ;
213 [label="temp_1 <= 74.0\nmse = 0.2\nsamples = 2\nvalue = 72.5"] ;
209 -> 213 ;
214 [label="mse = 0.0\nsamples = 1\nvalue = 72.0"] ;
213 -> 214 ;
215 [label="mse = 0.0\nsamples = 1\nvalue = 73.0"] ;
213 -> 215 ;
216 [label="average <= 73.4\nmse = 5.8\nsamples = 5\nvalue = 77.2"] ;
186 -> 216 ;
217 [label="friend <= 68.5\nmse = 1.0\nsamples = 2\nvalue = 80.0"] ;
216 -> 217 ;
218 [label="mse = 0.0\nsamples = 1\nvalue = 81.0"] ;
217 -> 218 ;
219 [label="mse = 0.0\nsamples = 1\nvalue = 79.0"] ;
217 -> 219 ;
220 [label="temp_1 <= 72.5\nmse = 0.2\nsamples = 3\nvalue = 75.3"] ;
216 -> 220 ;
221 [label="mse = 0.0\nsamples = 1\nvalue = 76.0"] ;
220 -> 221 ;
222 [label="mse = 0.0\nsamples = 2\nvalue = 75.0"] ;
220 -> 222 ;
223 [label="day <= 4.5\nmse = 4.5\nsamples = 3\nvalue = 77.7"] ;
167 -> 223 ;
224 [label="mse = 0.0\nsamples = 1\nvalue = 80.0"] ;
223 -> 224 ;
225 [label="friend <= 58.0\nmse = 1.0\nsamples = 2\nvalue = 76.0"] ;
223 -> 225 ;
226 [label="mse = 0.0\nsamples = 1\nvalue = 75.0"] ;
225 -> 226 ;
227 [label="mse = 0.0\nsamples = 1\nvalue = 77.0"] ;
225 -> 227 ;
228 [label="friend <= 70.0\nmse = 34.9\nsamples = 14\nvalue = 79.4"] ;
146 -> 228 ;
229 [label="day <= 19.0\nmse = 13.0\nsamples = 5\nvalue = 74.0"] ;
228 -> 229 ;
230 [label="month <= 7.5\nmse = 0.9\nsamples = 4\nvalue = 72.2"] ;
229 -> 230 ;
231 [label="average <= 69.2\nmse = 0.2\nsamples = 2\nvalue = 73.3"] ;
230 -> 231 ;
232 [label="mse = 0.0\nsamples = 1\nvalue = 74.0"] ;
231 -> 232 ;
233 [label="mse = 0.0\nsamples = 1\nvalue = 73.0"] ;
231 -> 233 ;
234 [label="friend <= 62.0\nmse = 0.2\nsamples = 2\nvalue = 71.6"] ;
230 -> 234 ;
235 [label="mse = 0.0\nsamples = 1\nvalue = 72.0"] ;
234 -> 235 ;
236 [label="mse = 0.0\nsamples = 1\nvalue = 71.0"] ;
234 -> 236 ;
237 [label="mse = 0.0\nsamples = 1\nvalue = 81.0"] ;
229 -> 237 ;
238 [label="temp_2 <= 85.5\nmse = 24.9\nsamples = 9\nvalue = 82.0"] ;
228 -> 238 ;
239 [label="friend <= 84.5\nmse = 14.4\nsamples = 8\nvalue = 82.7"] ;
238 -> 239 ;
240 [label="friend <= 75.0\nmse = 8.7\nsamples = 7\nvalue = 83.6"] ;
239 -> 240 ;
241 [label="mse = 0.0\nsamples = 2\nvalue = 79.0"] ;
240 -> 241 ;
242 [label="week_Fri <= 0.5\nmse = 3.6\nsamples = 5\nvalue = 84.9"] ;
240 -> 242 ;
243 [label="temp_2 <= 82.0\nmse = 1.0\nsamples = 3\nvalue = 83.8"] ;
242 -> 243 ;
244 [label="mse = 0.0\nsamples = 2\nvalue = 85.0"] ;
243 -> 244 ;
245 [label="mse = 0.0\nsamples = 1\nvalue = 83.0"] ;
243 -> 245 ;
246 [label="temp_1 <= 82.5\nmse = 0.2\nsamples = 2\nvalue = 87.5"] ;
242 -> 246 ;
247 [label="mse = 0.0\nsamples = 1\nvalue = 87.0"] ;
246 -> 247 ;
248 [label="mse = 0.0\nsamples = 1\nvalue = 88.0"] ;
246 -> 248 ;
249 [label="mse = 0.0\nsamples = 1\nvalue = 75.0"] ;
239 -> 249 ;
250 [label="mse = 0.0\nsamples = 1\nvalue = 67.0"] ;
238 -> 250 ;
}